{
  "neuralType": "MultilayerPerceptron",
  "neuralConfig": [
    {
      "neurons": [
        {
          "neuronType": "HiddenNeuron",
          "neuronParams": {
            "inputsWeights": [
              0.0016413562228803139,
              0.04566747303360859,
              0.0830816323942732,
              0.031438046521602106,
              0.29852025625057693,
              -0.004421765891437949,
              -0.26721106635976927,
              -0.1696508471084815,
              -0.045001166861601376,
              0.00032003273937002976,
              0.004238983335372,
              0.012961184468729112,
              -0.2382580038992068,
              0.05475820808092399,
              -0.37337790047161246,
              -0.14564694833533548,
              0.020897824665920873,
              -0.2831725130031875,
              -0.05309639824530765,
              0.0017977401506331953,
              0.0014016703185112584,
              -0.09098881054970677,
              -0.02744494931437155,
              -0.26760167890890935,
              0.2731541653563077,
              -0.08217241885532903,
              0.09979768890916142,
              0.10925223805152391,
              0.06372267176667414,
              0.0071923651027073696,
              0.042764153136751124,
              0.23507357196557419,
              -0.06201816327922881,
              -0.25255147213285406,
              0.34534544798158245,
              0.10443724258399281,
              0.288784768066051,
              -0.018191084865847928,
              0.06509821708640025,
              0.001561392625463247,
              0.04618013044328019,
              -0.1561267078414209,
              0.14540503080808861,
              -0.051870325312010225,
              -0.004581269208522458,
              0.06481007202923414,
              0.06321116597479275,
              0.16592753310752714,
              0.0466419963187647,
              0.0050519683566514475,
              0.008449619440079265,
              0.15555082046891128,
              0.10189593096213634,
              -0.04588912214214563,
              -0.051087553822116445,
              0.0022579414504689194,
              -0.19667947889714235,
              0.2532760093323303,
              -0.02087060198364441,
              -0.04439455538000619,
              0.005821815445290607,
              -0.008702172120174568,
              0.18944192366157506,
              -0.14415349776267933,
              -0.31263079283062917,
              0.052520483311999065,
              0.10771659314939785,
              0.2299786991662776,
              -0.016456250137890035,
              0.0415954564967023,
              0.05974305942082344,
              0.09353860021222753,
              0.25034732699684614,
              0.12018326634423182,
              -0.2306970498227349,
              -0.132171151014872,
              0.1147106313512123,
              0.1214908137145047,
              0.02656760085083682,
              0.038648977962904285,
              0.00756210839305523,
              -0.0245990382951434,
              0.06577585704052338,
              0.3508167431973444,
              -0.04027543566730214,
              0.018551056761783147,
              0.15128088413860738,
              0.01733320270296309,
              0.04755548325293348,
              0.0024185906593519836,
              0.004593480208117055,
              0.003916684445035788,
              0.04328999281856694,
              0.018658019202164592,
              0.0363545441055417,
              0.03766542181047192,
              0.045464892300363546,
              0.01793410418271643,
              0.004221173692951992
            ],
            "bias": 0.5892293419325977,
            "learningSpeed": 0.01
          }
        },
        {
          "neuronType": "HiddenNeuron",
          "neuronParams": {
            "inputsWeights": [
              0.005096920584656037,
              0.014480890044859024,
              0.02169951677144307,
              0.021134036271628163,
              0.09527436359604723,
              0.036827032458144185,
              -0.009038550433961543,
              0.011848136069720978,
              0.013430820161311155,
              0.0027315805317547825,
              0.0020069975131215925,
              0.011212857719927803,
              -0.004795769930503771,
              0.08210737985843368,
              -0.05967928356401095,
              -0.05606282905250355,
              0.005177450384192652,
              0.010267728455273475,
              0.004722337258539064,
              0.00015867080664952658,
              0.0020819884930658263,
              0.011941747669355155,
              0.07408209758741623,
              0.06228577967886698,
              -0.007878003847861742,
              -0.01581882241034269,
              0.059959908245653275,
              0.03325193089797221,
              0.04700488707259931,
              0.004988262715347143,
              0.011282133269334521,
              0.03507228337391418,
              -0.005276931542687521,
              0.041714039830482046,
              -0.029509709982396392,
              0.007756840669883797,
              0.13629740939775312,
              0.06089816634803156,
              0.04569244296285878,
              0.001265807591163157,
              0.013757576308662684,
              0.03506233336534718,
              -0.023443894478042987,
              0.06102546337869638,
              -0.007809388792494019,
              0.06556375715886649,
              0.07082921826146214,
              0.019863661788334902,
              0.011173367825039342,
              0.0030991197725021374,
              0.004462057559312626,
              0.012476362502201572,
              0.05323550606733586,
              0.012538328247419647,
              0.03323506350309544,
              0.14413882775832873,
              -0.04144638961990295,
              0.06760477137098135,
              0.025698982337454223,
              -0.015005785470481032,
              0.005572307811327568,
              0.016278511014896514,
              0.039728986170147286,
              0.02492009580814218,
              0.11337252844648328,
              0.068572346384482,
              0.02151307739699735,
              0.006000474781722682,
              0.02865606976841476,
              0.02165186543319479,
              0.03092461975453327,
              0.02916058999967237,
              -0.07091323208066443,
              -0.02850957024345107,
              0.05890842174490622,
              0.0664107876867775,
              0.05132765219049172,
              -0.04900374055503687,
              0.042433907613767766,
              0.01971327676876852,
              0.008532344185254387,
              0.0012921879317519705,
              -0.023451401856432262,
              -0.0006871849156462552,
              0.0465461904462844,
              0.003047998743718316,
              -0.030308671456442404,
              -0.043254764741134176,
              0.03684760829636731,
              0.006463486620783771,
              0.00007254945695969812,
              0.0012355323474793026,
              -0.01569062678114879,
              0.015037260776108249,
              -0.003354456307984743,
              0.03328889056737414,
              0.03298671775253779,
              0.018560762733926275,
              -0.0012590236310635948
            ],
            "bias": -0.6004498230459115,
            "learningSpeed": 0.01
          }
        },
        {
          "neuronType": "HiddenNeuron",
          "neuronParams": {
            "inputsWeights": [
              0.0028526353121626482,
              0.0036789501831179707,
              0.0009075264358701883,
              -0.034706376990885066,
              0.08115289475402573,
              0.04384153964687195,
              -0.010033810427216438,
              0.04484076680892206,
              0.04227385889575739,
              0.009012192863981902,
              0.007439926795758955,
              0.007143068068765426,
              -0.04310641578825645,
              0.006363964396217981,
              -0.09209855203310834,
              -0.16151364995065579,
              -0.09975145833144648,
              -0.01762364910879054,
              0.0373155123957563,
              0.008958662166183956,
              0.00566897742161779,
              0.02327811580332618,
              0.010612588257017719,
              0.024928968311020552,
              -0.05839500062964113,
              -0.05457313289165217,
              0.0924162124746549,
              -0.1621843600886819,
              -0.002701625818706782,
              0.0011569687849281908,
              0.00010437760513359877,
              -0.05308690139025657,
              -0.0843531772705977,
              -0.0571318848050754,
              -0.13195280388395586,
              0.1524720431980294,
              0.2958340670211744,
              0.09003643835526756,
              -0.005731850851461167,
              0.008323103890067497,
              -0.002897122076126128,
              0.14743726153268005,
              -0.08916030707685216,
              0.22237298521589707,
              0.07720831387250779,
              0.23652033091451813,
              -0.008184047571187156,
              -0.036092486031945634,
              0.015440373350608098,
              0.0023774107704216453,
              0.004483325630304829,
              0.010543562249366168,
              0.13865599792519626,
              -0.08208001687897237,
              0.015316771695207555,
              0.3532683080102774,
              -0.05107743034255437,
              -0.1520611631119091,
              -0.05196616038697212,
              -0.0506424288688474,
              0.0067081402638693175,
              0.06853806043351929,
              0.03559390201989936,
              -0.13932227433045605,
              0.0688859513401688,
              0.018772735715763062,
              -0.13944800588864675,
              -0.04240176129468534,
              -0.04963661666011388,
              0.0007827514871716183,
              0.042210965545875355,
              0.017932403998376346,
              -0.02156467177800633,
              0.005174081912371245,
              -0.06912800229080378,
              0.029460774109223396,
              0.11074296923557155,
              0.07278211722243248,
              0.008137641720954773,
              0.005718533285120504,
              0.00904356801352101,
              0.0075703096033655016,
              -0.0038614037735803094,
              -0.07354103404305043,
              -0.03366199767069123,
              -0.011422543675710037,
              -0.022733611799818094,
              0.021990916293869317,
              -0.0016432493111558923,
              0.004313160765486319,
              0.0019105073377617859,
              0.00894419242324913,
              0.007239744286357572,
              0.018866748190005955,
              0.003382567590866566,
              -0.0032803119838626074,
              0.001594941386701983,
              0.02049701291749406,
              0.026474262786750868
            ],
            "bias": -0.13221671489545983,
            "learningSpeed": 0.01
          }
        },
        {
          "neuronType": "HiddenNeuron",
          "neuronParams": {
            "inputsWeights": [
              0.005865346584153212,
              0.035122673340654116,
              0.05308929216803124,
              0.03129874611289506,
              0.17934395630510497,
              0.02815898379663369,
              -0.0889684318038796,
              -0.017525053021465058,
              0.006945580634301869,
              0.0041481926834324116,
              0.007558080882859174,
              0.028271330651422785,
              -0.06962656740980902,
              0.14044575622547814,
              -0.10774400342113635,
              -0.08362509362469667,
              -0.005323215690068727,
              -0.05014622075000311,
              0.007828490449162647,
              0.0013015254440876696,
              0.00817549059036669,
              0.005253852353435397,
              0.0658383240066714,
              0.049980871417319585,
              0.03187115113705644,
              -0.027467636476203653,
              0.06573838582307392,
              -0.012192805581273482,
              0.09796932002183982,
              0.0045949074050559745,
              0.01631139839938995,
              0.059478251705905906,
              -0.02834899832307947,
              0.04327586890093466,
              0.07514062602120555,
              0.05325838715943126,
              0.2180173355990404,
              0.00702161944468777,
              0.1006624284897541,
              0.0034532697699364468,
              0.01608037139884911,
              -0.019962571958971095,
              0.007535408160912422,
              0.06292610868752661,
              0.0066475390571033395,
              0.07634667191094358,
              0.11652493604650727,
              0.06591494845954328,
              0.0170270078451569,
              0.001954686088415367,
              0.003513238349989383,
              0.04686268214426403,
              0.03817613521804952,
              -0.014312395890466453,
              -0.005618972688808032,
              0.1797393735077277,
              -0.13736692494153005,
              0.19222721998231537,
              0.04567000921109697,
              -0.03467815281455912,
              0.0022226286600582545,
              0.013287898018754305,
              0.034767798522236326,
              0.019761650659540584,
              0.1798918216015784,
              0.08987306919252669,
              0.0324064227218083,
              -0.001269035793972663,
              0.039926375517977356,
              0.03421122221888061,
              -0.0003839361908158604,
              -0.012253368803226418,
              -0.16809289660105162,
              -0.0021132053536745687,
              0.04963412470138784,
              0.04236640146316524,
              0.05643978207512741,
              -0.13527530913564276,
              0.055911554114551766,
              0.03533549181936847,
              0.001877566553260077,
              -0.011664629421742038,
              -0.04329545041521094,
              0.060522767435441514,
              0.05818234549593769,
              -0.00021338726395166404,
              0.03025219504262955,
              -0.09558997769214933,
              0.07560745406178172,
              0.002611403602597988,
              0.0010716801825019463,
              0.0018634839828200356,
              -0.010319830556324065,
              0.020351514474646146,
              -0.00636597089915513,
              0.06131063238609192,
              0.062290344855466535,
              0.022536013607511392,
              -0.00498369382222372
            ],
            "bias": -1.2841912229498915,
            "learningSpeed": 0.01
          }
        },
        {
          "neuronType": "HiddenNeuron",
          "neuronParams": {
            "inputsWeights": [
              0.007661329008424323,
              0.02142944444100059,
              0.03619636628425261,
              0.015471642616577764,
              0.12956074037806004,
              -0.01951169692388699,
              -0.12394625240700677,
              -0.11877172235197136,
              -0.03003939201265413,
              0.007933914868465142,
              0.003537085909538982,
              -0.006974227885736729,
              -0.13888238324609267,
              -0.03114470731151348,
              -0.278105001736581,
              -0.07923964175028961,
              0.02068324569929352,
              -0.17493652316851174,
              -0.038585798660424504,
              0.0024172727098072024,
              0.00826900288605521,
              -0.05557624200014408,
              -0.0027473983112218272,
              -0.2127938534955757,
              0.1825102860178582,
              -0.06851265495804769,
              0.08873731936781687,
              0.14399380263648,
              -0.01867422235631251,
              0.0000899824417944004,
              0.015698102053640077,
              0.1632056499488134,
              -0.009657290712502396,
              -0.2577559612433314,
              0.13105566616484665,
              0.03661753680534026,
              0.13991705433960122,
              0.062388147262788664,
              -0.024040397902127704,
              0.0065424236360722785,
              0.01559402480066698,
              -0.04066888114465091,
              0.053559190308549325,
              -0.041255783799031234,
              -0.03693635650024785,
              0.023561469918565253,
              -0.0540735662265505,
              0.02487813439809921,
              0.03422041045999114,
              0.009422446912941,
              0.0015735533497705867,
              0.06955316070870772,
              0.10522751797310466,
              -0.02100537844986907,
              0.02934468833528819,
              -0.01937162558446861,
              -0.06324827295406092,
              -0.029067853022810293,
              -0.054960426339009424,
              -0.030265415266484554,
              0.007060850105099404,
              -0.003579259994839234,
              0.15449325337354683,
              -0.1659325347264217,
              -0.3610950320199159,
              0.00551592567140705,
              -0.0012597550578385289,
              0.16348122821932654,
              -0.054297435719873666,
              0.006580712254207363,
              0.10765477368552116,
              0.15209588568101665,
              0.32240409444863094,
              0.007474045976474825,
              -0.24801034429857569,
              -0.0904113595201516,
              0.09225777402947523,
              0.19550691321392424,
              -0.009267998824946165,
              0.007742670796856727,
              0.008571393369112779,
              0.0021651598276058795,
              0.06960543223326911,
              0.1796367855656857,
              -0.06513374776617005,
              0.015374679087663977,
              0.03946769542064002,
              0.07527323640056995,
              -0.011513458624302135,
              0.005897677024896665,
              0.002912289383781578,
              0.007259345855834942,
              0.035830897193728756,
              0.014780540271278692,
              0.03276855833149219,
              -0.008219366692600706,
              -0.004774416070127029,
              0.013438601861137866,
              0.013403374796338628
            ],
            "bias": 0.24984038948207252,
            "learningSpeed": 0.01
          }
        },
        {
          "neuronType": "HiddenNeuron",
          "neuronParams": {
            "inputsWeights": [
              0.006069582481213411,
              0.03291079776595324,
              0.04392395225698809,
              0.05739384636810225,
              0.08557027080707584,
              -0.0040311090897797944,
              -0.04869516668256491,
              -0.02167499627779642,
              -0.005581685411905532,
              0.004671618277801521,
              0.0004623741480387422,
              0.03737220708397077,
              0.04878791741032894,
              0.17652129629730606,
              0.04666015277194099,
              0.06979245626249819,
              0.08546414366704111,
              0.027146344716618233,
              -0.011094365982698662,
              0.0026891846951293047,
              0.004895759153751891,
              0.041483005901697415,
              0.07782398141974137,
              0.06085534837644286,
              0.04309105240003912,
              0.01701498673014523,
              -0.021230687772810067,
              0.08462806821844586,
              0.10765042407899961,
              0.0021664587585170135,
              0.029820318227150016,
              0.09479864896904808,
              0.04331394407262813,
              0.15264626961965316,
              0.16987070143168065,
              -0.059963152298031966,
              -0.034003056141032106,
              -0.041637772544799556,
              0.10704209734874959,
              0.0034194468056453244,
              0.03369438091824428,
              -0.10209319256794748,
              0.09488422299787873,
              -0.06629541203851891,
              -0.020392721844585827,
              -0.0736039066556191,
              0.14058864838961566,
              0.07637257636735932,
              -0.005408912674548788,
              0.00565212460350955,
              0.0033847840074467113,
              0.055965811474550285,
              -0.019112380882652154,
              0.03684749786343121,
              -0.05581348625745042,
              -0.07931224843352168,
              -0.0510294607907059,
              0.30540385814000676,
              0.09046727061327144,
              0.01815679182290355,
              0.005478709998205936,
              -0.02799237750237524,
              -0.003905939586691144,
              0.1436207182656458,
              0.19677611548470417,
              0.07508139599274422,
              0.14418789914090677,
              0.00977320102829042,
              0.09010553931318933,
              0.03458317639907887,
              -0.06982667574645683,
              -0.06117783089323552,
              -0.18767164623396473,
              0.028064280438615842,
              0.1770194014531947,
              0.056252535191217146,
              -0.04814124100303266,
              -0.21084328704498162,
              0.04552063726799736,
              0.0351206758535782,
              0.0046270118771505634,
              -0.012075929470420063,
              -0.025853743224352677,
              0.08010875784070368,
              0.08350550183933753,
              0.010928832168793009,
              0.05638571857947481,
              -0.12272033126986916,
              0.07748461932203583,
              0.004231479980736535,
              0.003105682488249958,
              0.003772617799470106,
              -0.006404847449257335,
              0.012760173562088684,
              -0.007564427033242911,
              0.0689160265248195,
              0.06270140273825796,
              0.004762899363043121,
              -0.016726466903110162
            ],
            "bias": -1.0037205639493365,
            "learningSpeed": 0.01
          }
        },
        {
          "neuronType": "HiddenNeuron",
          "neuronParams": {
            "inputsWeights": [
              0.007300206295167538,
              0.03543833593253045,
              0.0547552564300994,
              0.02563984941180295,
              0.1606318930103186,
              -0.00860205120564294,
              -0.12215858527815204,
              -0.038092032554259345,
              0.002425988734202817,
              0.007227315273663865,
              0.0038091865284456453,
              0.02967480026989477,
              -0.06308681096644264,
              0.1345223842492901,
              -0.089850469243464,
              -0.06268027937994204,
              -0.016636983835741855,
              -0.07476919098013514,
              -0.005094704295858335,
              0.006849802124479309,
              0.0024735985383917184,
              0.020283403586988272,
              0.02625442706346388,
              -0.01901908054771316,
              0.05890429691727449,
              -0.02800260448616474,
              0.02172011774787025,
              -0.04578571250607026,
              0.09152557725472808,
              0.0007834288456966291,
              0.01803060175911044,
              0.08064966953753482,
              -0.03142747011184791,
              0.010176784125168174,
              0.16170999648509485,
              0.07087493497993257,
              0.18261478382980662,
              -0.03568504985037505,
              0.0968069229741716,
              0.0009060884484632402,
              0.015391922778072163,
              -0.06511003114020726,
              0.05275930397718349,
              0.02338597507470626,
              0.03687033370077553,
              0.07170783011122484,
              0.10100022179083588,
              0.07608578757535424,
              0.015518827159650089,
              0.007240669393693527,
              0.0029709738724253676,
              0.0774642450095216,
              0.020769434557027264,
              -0.041377512960083324,
              -0.05701075443694787,
              0.0864355729258045,
              -0.14341614614242693,
              0.19347795879447532,
              0.028306782493900305,
              -0.025883660708261907,
              0.006738439033971554,
              0.014594390229024949,
              0.018281655879666184,
              0.002089016663867499,
              0.12187391091485555,
              0.05695450450398572,
              0.03939997006591093,
              0.012332468543923248,
              0.03194604724939243,
              0.03433040122925636,
              -0.026510888408366608,
              -0.04462767686367804,
              -0.13291993827100576,
              0.054595586754586,
              0.018683985530271494,
              -0.0014513711973712293,
              0.03974533949820193,
              -0.11595874544339584,
              0.03271391755680663,
              0.033143305833866425,
              0.002957270424265212,
              -0.01842123351309574,
              -0.023101599473898893,
              0.10101312428441123,
              0.04241560128031272,
              0.016912211710459178,
              0.0935149429780827,
              -0.0766245200972109,
              0.06431336762071087,
              0.009092423754469572,
              0.00638617815109968,
              0.0024687069419778557,
              0.012211404792102967,
              0.015911080016676193,
              0.003240155642088773,
              0.05875809818197263,
              0.060136160139194865,
              0.022508854272908364,
              -0.0016626327378515323
            ],
            "bias": -1.1565766783932148,
            "learningSpeed": 0.01
          }
        },
        {
          "neuronType": "HiddenNeuron",
          "neuronParams": {
            "inputsWeights": [
              0.009367498262747428,
              -0.0009467119066906151,
              0.0035027005375936776,
              0.026730824121785304,
              0.06758054444873354,
              0.045628851496419834,
              0.03535030106264345,
              -0.0796758364133256,
              -0.04585070679128054,
              0.0012992187353534613,
              0.004870432225675647,
              -0.0315498646046569,
              -0.15475548800755154,
              -0.16776283774017475,
              -0.32530663933737314,
              -0.025870480544009682,
              0.08517586079182907,
              -0.041584798880579026,
              -0.047990359946960916,
              0.005340806012314304,
              0.001535752002077388,
              -0.09032473379109725,
              0.06902885494373666,
              -0.0673512662689807,
              0.18190670515764726,
              -0.06103071566580659,
              0.1013919554530068,
              0.40964241092450926,
              -0.058604928306901054,
              0.007031832193553117,
              0.021016523007411723,
              0.15792009694340273,
              0.08489300531765578,
              -0.24834664483552737,
              -0.18303552564880543,
              -0.18268558729434128,
              0.008287489596683349,
              0.19574699438374155,
              -0.05606438612798415,
              0.0038021837130558372,
              0.018053061408867022,
              0.08339306988367338,
              -0.012108476514018878,
              -0.12351290843952917,
              -0.21362299681768562,
              -0.0922052172637937,
              -0.11861574294531635,
              -0.003395395004803125,
              0.03493962099892673,
              0.006930199822479257,
              0.007204255661202336,
              -0.05344719383518135,
              0.027932784048215635,
              0.15446823571672405,
              0.2902107073105713,
              -0.05390394397556656,
              0.006815732782081762,
              -0.05086646254196606,
              -0.0021423390672793857,
              0.002058315912374648,
              0.012058289764869645,
              -0.045010466806116395,
              0.23209110403804548,
              -0.0881725564568066,
              -0.40627740358989234,
              0.0738432753830626,
              0.01934141086600538,
              0.19558101523166652,
              -0.01328318948975163,
              -0.009718462533085713,
              0.23236691470540716,
              0.3044367025832512,
              0.38889850486895333,
              -0.22397986479399215,
              -0.24916257845889875,
              -0.06912448698710569,
              0.08731508588148426,
              0.22626496577815955,
              0.03662914373252448,
              -0.016421410164863873,
              0.0046539856040585985,
              0.012303174052850743,
              0.017472064871876407,
              0.07995752610828938,
              -0.004611631856635464,
              -0.02645698693193929,
              -0.173034771684241,
              0.09143161924571244,
              -0.03554283088298142,
              -0.009783560521631528,
              0.009644962240708922,
              0.0038276962272555753,
              -0.036549241991104785,
              0.021684648870865724,
              0.016859076519637868,
              -0.015231144013714375,
              -0.011604081583561224,
              0.013523661797613395,
              0.011908756540108156
            ],
            "bias": -0.10361151469551778,
            "learningSpeed": 0.01
          }
        },
        {
          "neuronType": "HiddenNeuron",
          "neuronParams": {
            "inputsWeights": [
              0.00013005344517079786,
              0.020399685476185075,
              0.03738354034505237,
              0.006890425147129268,
              0.17866597439737286,
              -0.014428735102378945,
              -0.15646580498462623,
              -0.12265014892742913,
              -0.03061047419113433,
              0.0004323948424657701,
              0.005661193676602738,
              -0.009882846592892557,
              -0.1958073421564782,
              -0.033509149075409646,
              -0.36286302336117865,
              -0.1499224365500072,
              -0.014919367325291154,
              -0.21152416237542415,
              -0.04167500261523071,
              0.009257512349445204,
              0.00024960706727184223,
              -0.07956279255925303,
              0.021269433135859567,
              -0.187666149333634,
              0.1920220118670775,
              -0.07537472232292057,
              0.12400113912541481,
              0.16534752806090244,
              -0.006368331769060393,
              0.007333935956426949,
              0.013023890018788105,
              0.1685634419443003,
              -0.0007497080038165559,
              -0.28475346921385924,
              0.08516150033157223,
              0.06511133341703977,
              0.236524871141206,
              0.10331388815585184,
              -0.006877048812382805,
              0.008634466368025546,
              0.015420092186079622,
              -0.007762408985233774,
              0.040058412034558774,
              0.007497148990176655,
              -0.05986036223982156,
              0.09370758125047343,
              -0.03123819755248679,
              0.024230213300951372,
              0.040444987033469146,
              0.006549416882438875,
              0.007285116591067551,
              0.05238393813561829,
              0.15993387616432564,
              0.0031966825392401098,
              0.07141725943798241,
              0.1112785137524804,
              -0.10547940156417697,
              -0.024416890183374142,
              -0.04564654681859799,
              -0.04219588031641672,
              0.0026362534154410343,
              0.004914690125698614,
              0.2043461301280872,
              -0.19324262217391003,
              -0.34522856686251197,
              0.06722031736578947,
              -0.007301887628293377,
              0.1762382360239258,
              -0.05236000271507488,
              0.008811214354821857,
              0.15009796838955014,
              0.21512528649323914,
              0.31779818085069966,
              -0.03252613016635983,
              -0.25957722114325366,
              -0.040226687821034286,
              0.15207033516241086,
              0.19579649963817067,
              0.014933636872132929,
              0.011898268590022612,
              0.00494998225060047,
              0.00531532247274706,
              0.059639628512808567,
              0.1632851320463238,
              -0.047161513049379426,
              0.006315001056504257,
              0.007486316992874991,
              0.06167571554258703,
              0.000013989627069642235,
              0.001394890915693291,
              0.0038443980536423655,
              0.007803279163091318,
              0.02319840018572974,
              0.028121100822430436,
              0.027992439705892658,
              0.004256698093035757,
              0.004165881598916015,
              0.017071739732415225,
              0.02150384817112083
            ],
            "bias": 0.30421042861709297,
            "learningSpeed": 0.01
          }
        },
        {
          "neuronType": "HiddenNeuron",
          "neuronParams": {
            "inputsWeights": [
              0.0018618218650914263,
              0.01526412407587055,
              0.02610730116977889,
              0.011943184831537876,
              0.10620393353471037,
              0.025155765764260363,
              -0.03735367632495715,
              -0.005804196130593462,
              0.007458872360453192,
              0.0026423196107681073,
              0.006952647297484009,
              0.014346394597350882,
              -0.030365400505783062,
              0.06224837449307837,
              -0.07892831488563112,
              -0.07432849195600318,
              -0.022268308563755387,
              -0.03820903808116768,
              0.008425739729240373,
              0.0095319297427328,
              0.0031422314166905667,
              0.010659759247638645,
              0.02688087587775293,
              -0.005608284971810901,
              0.008467324926851854,
              -0.039010111688342085,
              0.0548656881643003,
              -0.03673873912434807,
              0.028406730678665053,
              0.008388340608134329,
              0.0058109275283129746,
              0.03151373529997904,
              -0.04282423631554624,
              -0.0346171494823928,
              0.021682478148174176,
              0.0767731354298663,
              0.17890713528361424,
              0.03777534419088044,
              0.024086101999767677,
              0.005907448471987411,
              0.01441938892965744,
              0.03385093461301538,
              -0.016404774896797307,
              0.08211731949300492,
              0.032189727407051706,
              0.09053231288382885,
              0.025923059711295094,
              0.015233544744761306,
              0.015166495340797595,
              0.007514968070215688,
              0.006847209350173809,
              0.036818754166356014,
              0.05915736998704258,
              -0.03565018601070257,
              -0.0068015563402072775,
              0.1394318884621796,
              -0.06333873866842205,
              0.021181494186217342,
              0.0006082605971854369,
              -0.0227299326311645,
              0.008283124607338788,
              0.03082015523609424,
              0.03504579308943168,
              -0.057978275306911735,
              0.027588307742750923,
              0.02642914031610377,
              -0.037351127767849275,
              0.012800287899138889,
              -0.002928559684995992,
              0.010966401483041621,
              0.016042624783109728,
              0.007335507178260483,
              -0.016651877255152568,
              0.011780770435334017,
              -0.03633203193610532,
              -0.0011677354438823656,
              0.05889043580561222,
              0.00905882243608257,
              0.02038731936290498,
              0.01547206945042151,
              0.003604601209502041,
              -0.003202206047066452,
              -0.0010266870356058712,
              0.028454041848649903,
              0.00965406865293145,
              0.010967447367541806,
              0.018483860235762314,
              -0.005376759196045856,
              0.02611914846260187,
              0.007260175552886995,
              0.00868418569776542,
              0.0030348151792807445,
              0.012482827005387732,
              0.019292569755805452,
              0.0080916255083448,
              0.019221145563112975,
              0.017578162305314223,
              0.02258535108069219,
              0.014123422689016668
            ],
            "bias": -0.21642377363331347,
            "learningSpeed": 0.01
          }
        },
        {
          "neuronType": "HiddenNeuron",
          "neuronParams": {
            "inputsWeights": [
              0.0012190481281216194,
              0.008881033150255995,
              0.010341141194491477,
              -0.0061214414009716275,
              0.06537947323759304,
              0.031436350099287066,
              -0.019775898782515764,
              0.028403536981975983,
              0.026006519916958487,
              0.0015346635051530625,
              0.009158929629697802,
              0.01255871318464333,
              0.006939785508287232,
              0.055406299954184224,
              0.027005948921047296,
              -0.05784665436992935,
              -0.052904866138721904,
              -0.009363851896310773,
              0.028318550044129743,
              0.0015021334727694144,
              0.007286867365816896,
              0.04664373786914005,
              -0.04060720305128996,
              -0.031125443694538645,
              -0.05131498492015886,
              -0.035258653514135756,
              0.03671400990692666,
              -0.17434869449431442,
              0.01373110990568729,
              0.004207862224973097,
              0.008846877458816094,
              -0.037837872317187486,
              -0.08183937266712774,
              -0.0004804763889061251,
              0.04596152060132263,
              0.13902533127359964,
              0.18526145906659913,
              0.0038199515413770285,
              0.007433496827367396,
              0.004606450371715803,
              0.0022403432339616757,
              0.04620464656952839,
              -0.035664762125214834,
              0.1316040696479174,
              0.10334857126959418,
              0.12273675553214869,
              0.018997602606762396,
              0.014675356683783074,
              0.0070718428361218316,
              0.007499454244596539,
              0.0031448367480270208,
              0.04299921844111109,
              0.04632797100357324,
              -0.10350897866701629,
              -0.07995408734616458,
              0.13861307435446046,
              -0.03955617687245382,
              -0.03812599822986149,
              -0.024952700857971997,
              -0.02078159521247236,
              0.008351494443368412,
              0.051272501726931714,
              -0.0365510994604473,
              -0.07468674993421491,
              0.0713678921079743,
              -0.04930759053627744,
              -0.07238179500364343,
              -0.038383287542438894,
              -0.020742159571288592,
              0.005981779815629602,
              -0.038332065129007,
              -0.07460435102913096,
              -0.056817879524684416,
              0.07325465337101408,
              -0.021260960453849908,
              -0.023343388720825895,
              0.03555107575968516,
              0.015298483222877598,
              -0.003242142536502297,
              0.005793987075326179,
              0.0018952399040177345,
              0.00010530364669574179,
              0.013478177029230032,
              -0.0037864395477966353,
              -0.02434664634218916,
              0.017698760139729968,
              0.078633673193183,
              0.015608844733234857,
              0.009029798696939373,
              0.010001592345386544,
              0.0035692090502797763,
              0.008615123152687953,
              0.030035390293311634,
              0.018439516625581475,
              0.008760231549100234,
              0.0031979704926678727,
              0.003625039380484847,
              0.017761884651597597,
              0.018221921251962172
            ],
            "bias": -0.26041779721281566,
            "learningSpeed": 0.01
          }
        },
        {
          "neuronType": "HiddenNeuron",
          "neuronParams": {
            "inputsWeights": [
              0.0011144685853122888,
              0.03299928585437229,
              0.04501386431813072,
              0.01604674587558517,
              0.21019910296140698,
              0.012935524137984551,
              -0.15572751635802207,
              -0.03586679324394435,
              0.011699112707379927,
              0.0006989493394784577,
              0.009236249376497797,
              0.022147373234147692,
              -0.1041515409908684,
              0.1355352205098439,
              -0.09234518532622672,
              -0.11773293112146228,
              -0.06875591080446353,
              -0.11242377704387686,
              0.018656889836091536,
              0.006610827747479813,
              0.009419273589715204,
              0.029082435206959013,
              -0.06052732179213249,
              -0.0957074911914832,
              0.04375843001749398,
              -0.0709952560964465,
              0.03990368544977524,
              -0.23142156810530484,
              0.06846026930116453,
              0.008402680822415548,
              0.010271963748277513,
              0.026884458311230715,
              -0.12040397442183279,
              -0.05423060081697693,
              0.2124513100441321,
              0.19748029447479223,
              0.31789915117762374,
              -0.060853559700328276,
              0.06848859683780265,
              0.0005381994445854147,
              0.011853917733930073,
              -0.03268807022696625,
              0.021581586928394594,
              0.12255332259290441,
              0.12595704409407132,
              0.16331167378651404,
              0.04420172132991757,
              0.0725109175234942,
              0.014492069943427647,
              0.006367242522665266,
              0.0013134105003140904,
              0.1070192893024653,
              0.04460499290391042,
              -0.15801258105923952,
              -0.1311426770923855,
              0.1609787884426407,
              -0.207582188022794,
              0.1014728513514597,
              -0.02763595995256062,
              -0.04458584626491913,
              0.003585635795003401,
              0.05250331743526024,
              -0.01572603241249236,
              -0.11726184166010105,
              0.07656947323395673,
              -0.03317122246426727,
              -0.07769972479851221,
              -0.0004574725134346662,
              -0.01724430662860539,
              0.03970172822756258,
              -0.05693269985663357,
              -0.10419189020833998,
              -0.11358634407530861,
              0.13383472985367986,
              -0.11780830466104837,
              -0.09228316540281449,
              0.05580532189508902,
              -0.047941134973931494,
              0.0003354197849373828,
              0.03319524396565923,
              0.007262873278645413,
              -0.019476383075865453,
              0.0021622680413104123,
              0.10330385704101898,
              -0.03024918485397618,
              0.02004991754713415,
              0.1670845050855032,
              -0.027575739386489183,
              0.04910513413299929,
              0.00858998745936242,
              0.009859976915968526,
              0.005279159677263156,
              0.04782651054806591,
              0.021652165934383287,
              0.015838841891185243,
              0.04055496107805812,
              0.03966829525269545,
              0.020133765834520093,
              0.004685222983193992
            ],
            "bias": -0.24154479954647767,
            "learningSpeed": 0.01
          }
        },
        {
          "neuronType": "HiddenNeuron",
          "neuronParams": {
            "inputsWeights": [
              0.002070271305830075,
              0.005970910700480918,
              0.01290372585443077,
              0.013924967092389431,
              0.07640631457778194,
              0.019266835263584595,
              0.009436699096036045,
              -0.04001848869350208,
              -0.015054106841475979,
              0.004098833129956146,
              0.0007373592175068904,
              -0.004946612517412937,
              -0.07940729261647968,
              -0.02757227060966561,
              -0.21589448338144054,
              -0.05246120344766055,
              0.04886008491716191,
              -0.037770831577818104,
              -0.027845964820507888,
              0.006726564698635065,
              0.001296384155399748,
              -0.05032434755435581,
              0.12134940411090624,
              0.01825206514671359,
              0.08114403885722798,
              -0.03140524438741111,
              0.08601319192751138,
              0.24787724422843713,
              -0.0031327413833364686,
              0.0075319686772050195,
              0.012616117430869562,
              0.12022101843519466,
              0.05890015687614697,
              -0.11680131322708376,
              -0.132989654013241,
              -0.07784042537344996,
              0.06367155810857311,
              0.13113473861579417,
              0.004016991953347267,
              0.0008843717848007276,
              0.016298068614444397,
              0.052537514258254515,
              -0.013762548333373205,
              -0.03123856818224277,
              -0.1335992156034751,
              0.01365969155872355,
              0.005081175787953046,
              -0.027900731034136123,
              0.023663959309148126,
              0.007782350814251829,
              0.004473697667392437,
              -0.013522268528598629,
              0.07661760068713784,
              0.10992592411872654,
              0.16560904882933458,
              0.09463011138572912,
              0.0010453539260037474,
              -0.02021706482630819,
              0.011390462418919558,
              -0.014700366243372795,
              0.010823077291316903,
              -0.00792671452405815,
              0.15327067460970561,
              -0.026435254901295214,
              -0.137160157597695,
              0.1222831962355803,
              0.02994517112504789,
              0.09854468252076766,
              0.0066565368855546325,
              -0.00031505844891422736,
              0.1549630584340145,
              0.1923238617372595,
              0.17475297159834402,
              -0.12609699113223014,
              -0.05410896889400573,
              0.06954462561845895,
              0.08641726279051731,
              0.086442081541996,
              0.04409232699740041,
              -0.0019067891211041953,
              0.00024359169519221402,
              0.005456889867674599,
              -0.020653788539868007,
              0.035786916628227645,
              0.03983554563081106,
              -0.01094202906485667,
              -0.13783115283213415,
              0.009381698781180047,
              0.0007711530708722434,
              -0.007178375597323577,
              0.006446336546404828,
              0.003008833848825405,
              -0.03710297228040356,
              0.025058705585344968,
              0.011649338562086112,
              0.009452139071222687,
              0.009577239284166662,
              0.023074330719871663,
              0.004213105574471069
            ],
            "bias": -0.7210651534122956,
            "learningSpeed": 0.01
          }
        },
        {
          "neuronType": "HiddenNeuron",
          "neuronParams": {
            "inputsWeights": [
              0.002531486696259591,
              0.018999246395469155,
              0.034489718932790375,
              0.05164035383505309,
              0.054581100249883566,
              -0.01637726405857826,
              0.0013578436165489684,
              -0.08253029915983573,
              -0.046115642486050525,
              0.008696376365038203,
              0.009798823893453426,
              -0.0008061853733958151,
              -0.06322434837015424,
              0.048282165063437445,
              -0.20963115661877652,
              0.05667884185941265,
              0.1467773178399846,
              -0.030399597533919583,
              -0.054751296878172644,
              0.0012481389408028956,
              0.004459792713896112,
              -0.07909845358396422,
              0.2173105228394526,
              0.10917099192045902,
              0.15932432008322112,
              0.014915903198062984,
              0.029223711970822883,
              0.49559343061400696,
              0.05471248941550427,
              0.0034644329568050145,
              0.027611708591910318,
              0.21838118475107016,
              0.1657806495784453,
              -0.017561548769503336,
              -0.08911042246917579,
              -0.23860420911084684,
              -0.14019100126887682,
              0.10189776614882018,
              0.05367605965672473,
              0.0068927744262635435,
              0.0331243720656298,
              -0.07215218264247883,
              0.05477703264866729,
              -0.21149631910465852,
              -0.27657317769570205,
              -0.15533204677192974,
              0.07393873550612048,
              -0.002207837449907197,
              0.026051631300870393,
              0.005077457243806656,
              0.009950211634715442,
              -0.01991868016907963,
              -0.005637494309326564,
              0.25558058492604074,
              0.23663584401015975,
              -0.09546896709017273,
              0.016737866313283438,
              0.19037579967895943,
              0.11122734690479828,
              0.012811267154237242,
              0.010899518626029125,
              -0.04246434064575936,
              0.18952622994237162,
              0.16266375656037033,
              -0.08511644632798822,
              0.23341153178261595,
              0.21473041609043625,
              0.1503397376724358,
              0.09702375457282839,
              0.014302530891635978,
              0.17323681993366763,
              0.26098737828750646,
              0.15297019050744182,
              -0.2002778852951873,
              0.09658488526808891,
              0.14886422172849836,
              0.035606817290137774,
              -0.044289305072315883,
              0.09711311009031952,
              0.013321351322537704,
              0.00305670634062074,
              -0.001974946989213727,
              -0.05052227573586832,
              0.09973355157877462,
              0.13283770544315393,
              -0.004120990162793753,
              -0.19489070452029686,
              -0.07705738224171821,
              0.03997949805095972,
              -0.0007873010179435927,
              0.0067732607133301525,
              0.0011845160841753796,
              -0.08974408525330539,
              0.021714458129092496,
              0.002168999733918087,
              0.04612451658984151,
              0.04884667074276331,
              0.011493312268944959,
              -0.014794039026527008
            ],
            "bias": -0.727301246014895,
            "learningSpeed": 0.01
          }
        },
        {
          "neuronType": "HiddenNeuron",
          "neuronParams": {
            "inputsWeights": [
              0.006609599551339438,
              0.007371557190912219,
              0.0033777230378019625,
              -0.0062165497931733265,
              0.09713331962903313,
              0.0181691828006465,
              -0.041666440836563234,
              -0.04124805679380304,
              0.00045865666849612276,
              0.008860106244769283,
              0.009399822760189849,
              -0.012412170359917773,
              -0.11554620145293311,
              -0.048637227698543686,
              -0.22511922711380086,
              -0.1275233565887506,
              -0.03979515030347935,
              -0.1002813007279455,
              -0.00465982192371902,
              0.0009429807585569572,
              0.0007950557751899239,
              -0.03520502118941888,
              0.015461118226219372,
              -0.0797972798584509,
              0.06712665644941465,
              -0.06753453027511058,
              0.10101613259490769,
              0.05266141704844337,
              -0.031235467276988595,
              0.004567012094346987,
              0.009357022293462372,
              0.06748423045113038,
              -0.02402774904473605,
              -0.20457564580770787,
              -0.05728459573863041,
              0.07591202148682923,
              0.1976264632972171,
              0.10426722076958092,
              -0.03217900213037188,
              0.002431965978955256,
              0.00689704334393909,
              0.07689486758480936,
              -0.04035949162680733,
              0.07228639632768685,
              -0.02057503859558016,
              0.1267112791600983,
              -0.057274375211231146,
              -0.027569214374493323,
              0.029007676596868127,
              0.0012671178343805567,
              0.0057355754988728,
              0.020865085974435957,
              0.11003319200302016,
              -0.01507986816742745,
              0.09027550615760574,
              0.16653076665392164,
              -0.05922115878614702,
              -0.1305493671055707,
              -0.04721245516622351,
              -0.031487266543014154,
              0.0035848954595537473,
              0.039510045914470444,
              0.12206662717314083,
              -0.15921580248759135,
              -0.19779173040735623,
              0.024935791182409007,
              -0.08667483079926058,
              0.08099230660781978,
              -0.05333198901901244,
              -0.0049075818932286,
              0.12540267402961372,
              0.13572121485483365,
              0.2027371498743969,
              -0.04361088411808147,
              -0.19712281907703827,
              -0.029461927664228813,
              0.11297953860683965,
              0.1692596640372748,
              0.006285210603496688,
              0.0036337621457305153,
              0.00481934531473937,
              0.008646417213113934,
              0.019061798650619275,
              0.03883095192002858,
              -0.04386516643410344,
              0.005706692431951395,
              -0.04622039677056426,
              0.0643826584412134,
              -0.022582377044809497,
              0.003247597204054328,
              0.00028243913791140576,
              0.0040001557024936275,
              0.0029859023470666488,
              0.018736883618384454,
              0.01408671500131375,
              -0.0054146097397982625,
              -0.007883521966970305,
              0.020658653339412598,
              0.021978223237574365
            ],
            "bias": 0.19583939474511186,
            "learningSpeed": 0.01
          }
        },
        {
          "neuronType": "HiddenNeuron",
          "neuronParams": {
            "inputsWeights": [
              0.005064568488959818,
              0.007631582472938205,
              0.01112218736942272,
              0.01891754788941192,
              0.04832481706942725,
              0.02223141181886839,
              0.02518067322268838,
              -0.010418903579701173,
              -0.0017832645481301956,
              0.0005785246206895371,
              0.00748520600636823,
              -0.00384380018774192,
              -0.020217856590784414,
              0.01614984273027949,
              -0.10430881471891872,
              -0.039273439434970484,
              0.024973089549641687,
              0.0024396851903670316,
              -0.0022088701680529816,
              0.006035012699451693,
              0.0028255308060319228,
              -0.011293318664768036,
              0.09400387351144528,
              0.04722561807767519,
              0.02116177783072037,
              -0.014254859962682566,
              0.058756568304389835,
              0.140118083475448,
              0.016387304121836956,
              0.00109896055954843,
              0.015486015927705255,
              0.056075671136846236,
              0.030282242774734267,
              -0.022175023746052454,
              -0.10042981297895205,
              -0.03765910003797616,
              0.058687602111617755,
              0.09626451862756538,
              0.010234904855021503,
              0.006986862868813993,
              0.01637723050229325,
              0.049017242851944955,
              -0.025118467354614673,
              0.011694053329878986,
              -0.07722097119947399,
              0.024572185311681805,
              0.023951286784738717,
              -0.010806979677391058,
              0.012535016598531765,
              0.00038740689501439465,
              0.00496555371040723,
              -0.015671507545896912,
              0.05299138063026826,
              0.06678089109934456,
              0.10292366102849106,
              0.09896343151106068,
              0.010083854405743211,
              0.002575756764878994,
              0.020989826426800227,
              -0.009346915008762717,
              0.003398744201304398,
              0.007628544697434136,
              0.08655473663078758,
              0.010643534585868603,
              -0.011572861961283086,
              0.08544895114651077,
              0.013615445011341149,
              0.03933643646588663,
              0.022739175074695746,
              0.009185709494159968,
              0.0875915926014986,
              0.10830664592861146,
              0.05948559964787344,
              -0.07793322895653425,
              0.014723600972914483,
              0.06740398735876509,
              0.058139372040299724,
              0.02586740112995305,
              0.03929661995082222,
              0.004347524602585609,
              0.00735155128666591,
              0.006235464127895336,
              -0.016151257525194036,
              0.0002621280444926003,
              0.03894222096446976,
              -0.005995621450807444,
              -0.09625540988816027,
              -0.008552777486972243,
              0.008110900241284705,
              -0.0003047301900528363,
              0.004663736282906954,
              0.00011886968185597127,
              -0.03166931682599184,
              0.015854755208066694,
              -0.00014581590395259855,
              0.01494178737768346,
              0.02143104505993319,
              0.01502441635463163,
              0.0023002481775391873
            ],
            "bias": -0.6470837297721925,
            "learningSpeed": 0.01
          }
        },
        {
          "neuronType": "HiddenNeuron",
          "neuronParams": {
            "inputsWeights": [
              0.0048470868033631135,
              0.027348140713646753,
              0.04136905952558958,
              0.014252512334642663,
              0.1709778057155103,
              0.038563933298426986,
              -0.053967169873315186,
              -0.025762332738512403,
              0.001707065815429878,
              0.0024570480850742665,
              0.005303189656454765,
              0.004196527463790826,
              -0.09714581703854913,
              0.08719742611349852,
              -0.19937869955191312,
              -0.11064834408807345,
              -0.0001629677400222016,
              -0.06826613302917911,
              -0.003463244723707524,
              0.007223934194236622,
              0.003175842266044568,
              -0.026451032155497902,
              0.10817208711664007,
              0.053766303562444995,
              0.05637270659203977,
              -0.0504946306861337,
              0.0978734356371461,
              0.1002305609142442,
              0.06712016324302836,
              0.007008214044896851,
              0.022822553686106115,
              0.09466408844803666,
              -0.0026684376433920264,
              -0.03616829090619002,
              -0.040519095243982166,
              0.00504483821553758,
              0.22089751848931732,
              0.08869696585266805,
              0.06438829483979967,
              0.004856915722406689,
              0.019432886807104293,
              0.03855916331927567,
              -0.013337343746420448,
              0.056911773920300335,
              -0.05797675530862335,
              0.08589561805044157,
              0.06419261952885799,
              0.024121563201427096,
              0.024874505499815777,
              0.008731368647544153,
              0.0001166132119746986,
              0.01968923292841144,
              0.08412071676780986,
              0.035848899649461766,
              0.08962072453899006,
              0.21680381571091037,
              -0.10630677150586747,
              0.08847207998003705,
              0.02969330552301427,
              -0.04007333332715541,
              0.0068396803724986984,
              0.015556769876980934,
              0.11607488220643332,
              -0.013861369677710298,
              0.05770376748541443,
              0.13671005537417968,
              0.015564015491770323,
              0.04077634894159227,
              0.024195377026567114,
              0.02094515048416871,
              0.09157459986781467,
              0.09867442171979737,
              -0.021422939028365093,
              -0.06618846309340766,
              -0.013006112805173439,
              0.05682353820371597,
              0.10098225784758626,
              -0.044509256693020735,
              0.0612361011074789,
              0.02596234061564163,
              0.00986290229512647,
              -0.007096097262758344,
              -0.04318142584290466,
              0.042768650526429836,
              0.05240614987974195,
              -0.012781217399555185,
              -0.06565187359808868,
              -0.05719481043985518,
              0.043807593086781414,
              -0.0029231913244684576,
              0.0077031093700797824,
              0.0031576588792154906,
              -0.02728675139487722,
              0.02368535070697858,
              -0.0024715621820678075,
              0.04974105530849505,
              0.04778136605828886,
              0.024772734068618858,
              0.0009960085169588748
            ],
            "bias": -0.5998623281310795,
            "learningSpeed": 0.01
          }
        },
        {
          "neuronType": "HiddenNeuron",
          "neuronParams": {
            "inputsWeights": [
              0.000688847950777621,
              0.017481886227619602,
              0.029582233000766053,
              0.03408593673413759,
              0.1301093545449835,
              0.028462647184925364,
              -0.014315433067334918,
              -0.04469955095379674,
              -0.013908127267458055,
              0.009640259234578712,
              0.00959060669254011,
              0.0007030987759431155,
              -0.087104651597598,
              0.05588235534754074,
              -0.24229370564324615,
              -0.07973528736597753,
              0.048155930525243154,
              -0.050068684494137455,
              -0.02310595348645808,
              0.007308538815248576,
              0.006708154224674197,
              -0.059809627337866246,
              0.2086544947546354,
              0.13341395475195186,
              0.07753623127836132,
              -0.01838760764220703,
              0.11340444805703527,
              0.31623899944087264,
              0.06626003015314864,
              0.003086021865176509,
              0.019529809377130697,
              0.14374737256775036,
              0.08352674511960739,
              -0.01591403334757947,
              -0.15474503187696462,
              -0.12555746776388482,
              0.1016344465757577,
              0.14675788708573118,
              0.07390997564756405,
              0.0025392667548195086,
              0.02712578732990758,
              0.039771014194277685,
              -0.013727121538204153,
              -0.04093527974636507,
              -0.1798720364748,
              0.0074738513050292945,
              0.10288969027097335,
              0.0037716433459245463,
              0.023743909180807272,
              0.0030702842547498145,
              0.005697077232335366,
              -0.024108308541616424,
              0.07621605447974707,
              0.16713903716635312,
              0.19965905457522842,
              0.18550585981325332,
              -0.03246398442814586,
              0.1348888764668927,
              0.0742820620798235,
              -0.027332847240924524,
              0.006938039243910999,
              -0.01567040900288107,
              0.17439704460605873,
              0.08211486331245456,
              0.0489089895338245,
              0.23085800651908303,
              0.11027363482228372,
              0.08303049909623529,
              0.0665180431141538,
              0.02505783976220759,
              0.1652070309652978,
              0.21158853353138624,
              0.022343435596779437,
              -0.17729427622234342,
              0.0741835328431795,
              0.15150002693692527,
              0.10970623409143222,
              -0.051869688803468414,
              0.09123935833478936,
              0.022745268518713637,
              0.004515136958769711,
              -0.0034676051508545735,
              -0.05845977243404854,
              0.022878951081707455,
              0.11266095242835639,
              -0.02466921583535813,
              -0.18366336488965918,
              -0.08414675114270091,
              0.051572053589149576,
              -0.006524435862398801,
              0.009986882602869883,
              0.002327771080918329,
              -0.0842555738065653,
              0.026628166658147247,
              -0.00478203141210845,
              0.051026596721221534,
              0.05167142952770031,
              0.031156445736217318,
              -0.0031985888301958175
            ],
            "bias": -1.1089536573067766,
            "learningSpeed": 0.01
          }
        },
        {
          "neuronType": "HiddenNeuron",
          "neuronParams": {
            "inputsWeights": [
              0.0052290397212093115,
              0.023583826160876793,
              0.03230598344135222,
              0.038582004092761586,
              0.20512987269767438,
              0.10350639450442514,
              0.04458395864967456,
              0.03437367302358918,
              0.024615690411257246,
              0.006843948949239217,
              0.001796499287542906,
              0.023842212273119518,
              0.020149944131834744,
              0.18845919307393708,
              -0.1488893123668454,
              -0.1564295983842785,
              0.02839259199398954,
              0.04994365755977905,
              0.022353437844891914,
              0.002220596621205586,
              0.0014201260579667179,
              0.07242395250200206,
              0.28079341813725656,
              0.2595946920441585,
              -0.04286878326617962,
              -0.06288440977145462,
              0.17627309828831703,
              0.17798560623711437,
              0.10143789847093082,
              0.00940563806551602,
              0.033577051475722104,
              0.11825689577143857,
              0.030896880620630417,
              0.11531975336087691,
              -0.22567794086344137,
              -0.06298603962947352,
              0.32125292746495715,
              0.21441790738765681,
              0.09400940293218682,
              0.005831122417517083,
              0.033251344990405655,
              0.15132312599469774,
              -0.11299030876365193,
              0.1794579738991256,
              -0.06495701123816963,
              0.18794534200371468,
              0.17617899274139584,
              -0.03786310218972908,
              0.014399353332451367,
              0.0002878113346438321,
              0.007382108957538582,
              -0.007489141415891826,
              0.181124353223717,
              0.1033635232325354,
              0.15737060874255032,
              0.4671015366137453,
              -0.03303644193355463,
              0.05373186461888407,
              0.060676173451578726,
              -0.05745599877625609,
              0.003491961439997809,
              0.05194419132044611,
              0.14997161228489325,
              0.07626266470697037,
              0.2616236973388251,
              0.2523445760435391,
              0.040260090215401056,
              -0.05934602352943108,
              0.05415699577512271,
              0.029941624536227274,
              0.10799038218950466,
              0.11395411164141145,
              -0.15110906214720943,
              -0.12194607437817155,
              0.1951650104768653,
              0.24882216330996784,
              0.1355501664185778,
              -0.16694146148759983,
              0.10365953610104671,
              0.024463643360854808,
              0.002370644770883603,
              -0.010610137059681467,
              -0.10408777617176665,
              -0.08465008058317344,
              0.13324848149754337,
              -0.01992885178833873,
              -0.1978549552124338,
              -0.14464177360450997,
              0.06664868340344536,
              -0.000263549170805274,
              0.0030897850137830505,
              0.0027198694845774808,
              -0.08577479841159848,
              0.033410054504338406,
              -0.027236400401561875,
              0.06655646783639257,
              0.06650541828255081,
              0.03437400089517593,
              -0.004056019152604744
            ],
            "bias": -1.2823026642657707,
            "learningSpeed": 0.01
          }
        },
        {
          "neuronType": "HiddenNeuron",
          "neuronParams": {
            "inputsWeights": [
              0.009139366895292633,
              0.032083264948504296,
              0.05413016929361281,
              0.02474387309945851,
              0.1489809852856248,
              0.005445579786173983,
              -0.12428435698471826,
              -0.010935064860799893,
              0.015901815168641836,
              0.009106530283401002,
              0.001474662288103159,
              0.035653936436004396,
              -0.010970900728994896,
              0.1642953806728591,
              0.02642215365684085,
              -0.05092766619854701,
              -0.03317681626329258,
              -0.05457712341176576,
              0.013708547651890526,
              0.008640289204978438,
              0.009589298557243213,
              0.06495746903520315,
              -0.037440876856246856,
              -0.04123803387143375,
              0.010406451000268829,
              -0.015527023635100523,
              0.00035771467475764133,
              -0.20059241027885147,
              0.09170342901079519,
              0.005254008038421656,
              0.014125936671590697,
              0.01936771550723157,
              -0.08335293071895164,
              0.0599028874693406,
              0.23973198921590474,
              0.1474771953906815,
              0.20291940647281856,
              -0.09205451779382894,
              0.0882930370896251,
              0.009701292220181132,
              0.019028493461700862,
              -0.06933623111521281,
              0.04976086762798356,
              0.08178536198336536,
              0.127853867727914,
              0.08434300987711464,
              0.09914694595978707,
              0.09142141771580393,
              0.002422015379107205,
              0.0018202014497988369,
              0.00015136444627686753,
              0.09437020796287227,
              0.0024108717682513377,
              -0.12630390398840183,
              -0.15679709470473235,
              0.07199376543763943,
              -0.15519436683028473,
              0.18796411998394874,
              0.016197502743598068,
              -0.026229206507068923,
              0.006978634810898612,
              0.033632122294344105,
              -0.06128704096557261,
              -0.01128090787221423,
              0.17939287605254345,
              -0.030457441935858406,
              0.00690376319748929,
              -0.03960957285287129,
              0.022383332898892695,
              0.035933811145431614,
              -0.10600177089494142,
              -0.14679058525330235,
              -0.20813984263187577,
              0.12708881990580215,
              0.01985261290691911,
              -0.04399836790908382,
              0.007588573538962085,
              -0.1422972918957501,
              0.01113799671643057,
              0.04138983514865819,
              0.008487935855214611,
              -0.01396046496171666,
              0.0031788530415580206,
              0.08291708698013221,
              0.012813939119900215,
              0.03168602583225604,
              0.1737582230951504,
              -0.06701423160564597,
              0.06603401956761261,
              0.00935804268541839,
              0.008919310567849689,
              0.005311929493163017,
              0.04658960686329008,
              0.011718148641334927,
              0.011167007546442656,
              0.05404261489818141,
              0.050684522208680624,
              0.018924665356105687,
              -0.00397913863978316
            ],
            "bias": -0.9105046139539449,
            "learningSpeed": 0.01
          }
        },
        {
          "neuronType": "HiddenNeuron",
          "neuronParams": {
            "inputsWeights": [
              0.008797054145700246,
              0.028698686855678137,
              0.03937330999770867,
              0.034056086326099584,
              0.095598457435617,
              0.005358037975208348,
              -0.05736046178219925,
              -0.01697364170699704,
              -0.00031854045464477297,
              0.00400174524755504,
              0.008358792553254935,
              0.027931537296592653,
              0.0005629094578835884,
              0.11655715729608009,
              -0.0002773865285997003,
              0.003439174421460875,
              0.03282865116182013,
              -0.011852716010789154,
              0.0035106847822901064,
              0.007549298192466902,
              0.007661490864436229,
              0.032539463249845496,
              0.03157132602995299,
              0.010028313400501865,
              0.03306670285142788,
              -0.002356760699801429,
              0.0023919742577553837,
              -0.0005160316902284358,
              0.07517713247659118,
              0.004907355678203746,
              0.015560954563544612,
              0.06173562603186621,
              -0.012979445220106493,
              0.06379097854600932,
              0.13943943937479555,
              0.02236030094390334,
              0.07559149551105768,
              -0.029576180731563612,
              0.07262870488331008,
              0.0037982671809547327,
              0.018411006584531743,
              -0.05744131641213572,
              0.04096773043888623,
              -0.0013357294928798876,
              0.020849084064616732,
              0.005777143228025084,
              0.09113206891427021,
              0.06500940982148085,
              0.002000502633665916,
              0.006259608239641084,
              0.005537064626250433,
              0.05835291500792148,
              -0.0026451937496563007,
              -0.015060925888076598,
              -0.05182364638390588,
              0.0024841547760327057,
              -0.06190789494445112,
              0.17412939345861916,
              0.03532214384075798,
              -0.002962308743969299,
              0.004599138897080977,
              0.007245552827113537,
              -0.003953514109655079,
              0.041849979793608556,
              0.11067906935008992,
              0.026536831554334093,
              0.06858979516636865,
              0.01150757125010689,
              0.04116795536599809,
              0.028222189278929923,
              -0.04562846019297051,
              -0.05010129878862859,
              -0.10687229374238781,
              0.038896890547724675,
              0.0647956610251122,
              0.009516329046414553,
              0.0015090505499897717,
              -0.10425798264265547,
              0.03158894074698911,
              0.024795646381552676,
              0.001002309407399136,
              -0.009631273679260817,
              -0.007632290634021317,
              0.07450120378682873,
              0.049278956764955244,
              0.01548903346184545,
              0.06511469590764357,
              -0.0639636343476168,
              0.05395340813676659,
              0.007732813426082444,
              0.001880490174022326,
              0.005762044377903356,
              0.011109054552571147,
              0.016757877419076386,
              -0.00009288527017814428,
              0.041767047022002395,
              0.04354136600831508,
              0.014479296630903467,
              -0.006612218113582932
            ],
            "bias": -0.8268483212766236,
            "learningSpeed": 0.01
          }
        },
        {
          "neuronType": "HiddenNeuron",
          "neuronParams": {
            "inputsWeights": [
              0.004207887763616132,
              0.024250248778083846,
              0.031048638285625818,
              0.04627749460896046,
              0.13830032207463072,
              0.083642896828896,
              0.05635897110457225,
              0.03778981307793344,
              0.0174740001740883,
              0.005239420720807173,
              0.0012971787117272014,
              0.022160597770264894,
              0.06250343102248822,
              0.17625961665618392,
              -0.07745680477017021,
              -0.05661272412232201,
              0.07275063694012213,
              0.09016272225409842,
              0.014385165330302414,
              0.00020122075181750883,
              0.00010222845650784576,
              0.04764612149598871,
              0.260757516100945,
              0.2523708646170187,
              -0.036120175686800884,
              -0.019050030632244957,
              0.10940948132652424,
              0.20980252800582153,
              0.0957379917629931,
              0.0010912371004693636,
              0.02864022203147236,
              0.09811219713982548,
              0.06687423699364199,
              0.16683405542926177,
              -0.17813354386322108,
              -0.12216461194988754,
              0.1526434351493663,
              0.16698266225483735,
              0.09909119731554904,
              0.006790720728546534,
              0.030552840000355033,
              0.09584558251882326,
              -0.05569538066614,
              0.08736604450400423,
              -0.09975092257943671,
              0.07178355019456002,
              0.17840495675583473,
              -0.01699009782867774,
              0.011799287677299227,
              0.0009698438952740067,
              0.007104059474960108,
              -0.019731879398488788,
              0.12489887733264837,
              0.141059174099655,
              0.13129429359345776,
              0.3013114500324268,
              0.0014287017592239492,
              0.13075609441750183,
              0.08795253844415743,
              -0.02923849908720781,
              0.003575681148763918,
              0.016672650769427314,
              0.11552015435015218,
              0.15342640848267483,
              0.2767445622104622,
              0.23226116982507133,
              0.07972822014546276,
              -0.04227739467263774,
              0.08219496743073831,
              0.01984482098765413,
              0.07816308217931181,
              0.09294790047170144,
              -0.17852319009639445,
              -0.12210437761963788,
              0.236526025553699,
              0.23317916049308052,
              0.06618187177006273,
              -0.19854114840292755,
              0.09930180366935802,
              0.02582074170144246,
              0.0002543883819910489,
              -0.009558203884738055,
              -0.0847618325386522,
              -0.07709310247303129,
              0.14055030575256228,
              -0.01735391403844752,
              -0.18541400772367492,
              -0.14603199702754197,
              0.0708307716635912,
              -0.00021501233764852898,
              0.00562212262054003,
              0.0027672043253956385,
              -0.08938968066352626,
              0.02764021157441259,
              -0.0245946535270756,
              0.06562857407236534,
              0.07086401805296093,
              0.028092000298236997,
              -0.010529910472310207
            ],
            "bias": -1.0932465517672418,
            "learningSpeed": 0.01
          }
        },
        {
          "neuronType": "HiddenNeuron",
          "neuronParams": {
            "inputsWeights": [
              0.007088713911619292,
              0.022912582235120812,
              0.04298635527101577,
              0.05240874244100476,
              0.08325640885514883,
              -0.012133246901712276,
              -0.03694359598604695,
              -0.07204740894860019,
              -0.03792424087023926,
              0.00047893211281709535,
              0.00599265858054523,
              0.004404531431751527,
              -0.03761881114847009,
              0.08458219886268732,
              -0.1546497790495688,
              0.046970555096110644,
              0.1314105051931028,
              -0.027959645009717288,
              -0.040371906791801894,
              0.0019331515406508743,
              0.009049198455998558,
              -0.02578714715851391,
              0.13596113049022585,
              0.031023253705583342,
              0.13950743770450347,
              0.008054697819639472,
              0.03081890215957786,
              0.3361598821727337,
              0.0619973389561289,
              0.004910482152816268,
              0.03572963837088005,
              0.18282586050399285,
              0.08812368460943756,
              -0.015123303691165962,
              0.051682218807507334,
              -0.14701560601038102,
              -0.0546569537352862,
              0.05989945828135397,
              0.05745454940580001,
              0.005750756662078819,
              0.0337962586472413,
              -0.07548892656270377,
              0.0672895991540788,
              -0.14423769060268996,
              -0.16404371262494244,
              -0.11147536167040392,
              0.08395326799100969,
              0.043115494422702225,
              0.017886019937037728,
              0.005492805329427993,
              0.005736915613700064,
              0.025922576676394703,
              0.009013523773002494,
              0.1555388616255186,
              0.11390873834257889,
              -0.09359749890315927,
              -0.013119921324770412,
              0.2127613607169809,
              0.0789990780127561,
              0.0078091752915125925,
              0.008432779595022496,
              -0.03596998123658201,
              0.13626205395899746,
              0.106438747466352,
              -0.05417512019964741,
              0.14837680614736656,
              0.17652709355459395,
              0.11789082343204452,
              0.07552289212319052,
              0.021373916403392687,
              0.09667234686865055,
              0.14426226477882462,
              0.09709091040419245,
              -0.09497865494419995,
              0.06927060133367333,
              0.07599448488252865,
              0.02539247147511998,
              -0.04978141836489378,
              0.06078598063153601,
              0.016671190723874407,
              0.00825917550180323,
              -0.010044633916740372,
              -0.021371549876575305,
              0.12919052235947664,
              0.0884441273944465,
              0.0067721318652881534,
              -0.0772935647674534,
              -0.06459258836201989,
              0.04916483581077299,
              0.0027610100807336424,
              0.004612029199042553,
              0.007831321970604908,
              -0.04386381127901741,
              0.015609501429257665,
              0.002710951624849876,
              0.04959667473138803,
              0.04866170338127468,
              0.01840317619694955,
              -0.007169493924268557
            ],
            "bias": -0.5453414235386457,
            "learningSpeed": 0.01
          }
        },
        {
          "neuronType": "HiddenNeuron",
          "neuronParams": {
            "inputsWeights": [
              0.006134795466513147,
              0.023636483598171165,
              0.03493115132647301,
              0.01218892491618726,
              0.18877763626199914,
              0.02785028145491214,
              -0.09732065964800925,
              -0.05055866906465829,
              -0.002724519566623474,
              0.004773946999134573,
              0.00009735228578663626,
              0.005052966392025716,
              -0.1257586189765629,
              0.06526390669159655,
              -0.222573428212742,
              -0.11790731796628916,
              -0.012905725998546873,
              -0.11001318781260047,
              -0.013052421968214153,
              0.003503211925284843,
              0.0061284333718386735,
              -0.03403819129711194,
              0.05835410271556354,
              -0.03489675630903662,
              0.0871902058788402,
              -0.06477522114682449,
              0.08657535720515025,
              0.043858793703935896,
              0.04106901446360671,
              0.007435607448766416,
              0.01193373691485783,
              0.09939047044771451,
              -0.031375600246078765,
              -0.11513611202886503,
              0.03501359251907138,
              0.06788043696207903,
              0.24432228098348122,
              0.06693109672624226,
              0.04258240564194446,
              0.008573573971540228,
              0.013066650997261916,
              0.010469672808204962,
              0.009818270301720966,
              0.0668346696311264,
              -0.01917786363032322,
              0.11990773184210693,
              0.023314818738349914,
              0.025174531018997654,
              0.025041776957286193,
              0.002794168932418976,
              0.009137405880467901,
              0.054045742539413744,
              0.09239086884711088,
              -0.008638619584358326,
              0.05220526245034166,
              0.18620400878170393,
              -0.13011036456211197,
              0.05037962034712215,
              -0.0033872909029198277,
              -0.042776590201537526,
              0.002819988579605923,
              0.02368350616176006,
              0.11124159696527128,
              -0.08570289521878999,
              -0.05807563999870817,
              0.08636721613721568,
              -0.02449107061970732,
              0.0661751477882954,
              -0.008249327196979631,
              0.01969052720221244,
              0.08778376696808836,
              0.09152078309639813,
              0.06221955275267208,
              -0.018680319211101307,
              -0.10799989832249778,
              -0.003214095750659798,
              0.10315933903354124,
              0.033032464388072516,
              0.03247804608791882,
              0.028093537266934948,
              0.007071373385703423,
              -0.0035800451590503038,
              -0.013548307783652841,
              0.08466344226837014,
              0.007538932407190022,
              -0.00046257415147668904,
              -0.0002503765807077873,
              -0.01856609627305557,
              0.03558244229531679,
              0.006058318603763144,
              0.0050399944050618555,
              0.0007965286219338127,
              -0.004220368130002798,
              0.026310704531307745,
              0.00774922955823869,
              0.02691464258762012,
              0.02985558983996737,
              0.026276417630891793,
              0.005089900935844316
            ],
            "bias": 0.05820968786819621,
            "learningSpeed": 0.01
          }
        },
        {
          "neuronType": "HiddenNeuron",
          "neuronParams": {
            "inputsWeights": [
              0.003473272934121392,
              0.019994920380849903,
              0.042079049799985155,
              -0.010538884165152189,
              0.101931262565971,
              -0.08203502047488315,
              -0.20720052920554213,
              -0.10007630412039946,
              -0.00481409035698029,
              0.0024965076266311925,
              0.0010563442830746445,
              0.005779722983534151,
              -0.10833953703756241,
              0.0037736838690739846,
              -0.14474598689249973,
              -0.06392861156498979,
              -0.054374324388781495,
              -0.19111954187944616,
              -0.013141400616919123,
              0.0028525492343927164,
              0.0035376965803352724,
              0.002304814205636487,
              -0.10039827286268134,
              -0.25537540760245964,
              0.11367598104679481,
              -0.08128074917154247,
              0.004752530483649776,
              -0.16221297769880766,
              -0.010949188521823005,
              0.00014798079407620215,
              0.02189507173271812,
              0.07182480508313471,
              -0.0683087989933439,
              -0.22473207730239844,
              0.2449898120122154,
              0.21217869328197148,
              0.1771905918729779,
              -0.06296270779296764,
              -0.006772711804752669,
              0.00397565052493086,
              0.01679141472537889,
              -0.05551447379764082,
              0.08844322791111822,
              0.01947404343018734,
              0.0991004245584466,
              0.16005200332575584,
              -0.07482721267622862,
              0.052773229452405215,
              0.021300688390011747,
              0.0007621502975684746,
              0.008633989983023255,
              0.12174213663785231,
              0.06874719141143742,
              -0.16239537562912834,
              -0.16539195203866705,
              -0.014545177563399833,
              -0.11656973334129965,
              -0.03442993605988691,
              -0.07634626946301469,
              -0.029552189817901895,
              0.003608263995002763,
              0.03293564677898041,
              0.02603586937076426,
              -0.22009644831760236,
              -0.23280637334135526,
              -0.05830211161537845,
              -0.06505454724791683,
              0.07969223858927801,
              -0.07022505387461572,
              0.01626444653171433,
              -0.011165860026751961,
              -0.042504123043388596,
              0.18760497780390628,
              0.18298175912079137,
              -0.23031147729969145,
              -0.13488131508419945,
              0.03569551437265408,
              0.13507257437968986,
              -0.04563833266056916,
              0.013886197505844158,
              0.00841171669691235,
              -0.015890575914179254,
              0.0485200594724844,
              0.18189012771430882,
              -0.09308993541210547,
              0.03753200490657889,
              0.18183360910720017,
              0.08229854390751083,
              -0.004830562902062853,
              0.012470634990769322,
              0.00839184434290462,
              0.005802967472432771,
              0.08048764886653957,
              0.007994211961418307,
              0.03219513911188359,
              -0.0019493290870030162,
              -0.0006460660304144822,
              0.013473794315000228,
              0.023750534429953486
            ],
            "bias": 0.2626802606961076,
            "learningSpeed": 0.01
          }
        },
        {
          "neuronType": "HiddenNeuron",
          "neuronParams": {
            "inputsWeights": [
              0.005508299671304173,
              0.02989589750782904,
              0.049011943632116056,
              0.03136142763797603,
              0.1963075642990424,
              -0.001303644733936204,
              -0.12979182273835935,
              -0.10162323990176866,
              -0.02659886909634836,
              0.008237817588255742,
              0.00948186745884209,
              0.001388834786195902,
              -0.13756713255474595,
              0.07963971287312717,
              -0.26758444014235977,
              -0.06890621957463178,
              0.05103774082875214,
              -0.1450418043456772,
              -0.03871802647710965,
              0.0047721640664722415,
              0.0015940399161939157,
              -0.05697038137790432,
              0.08974240438517138,
              -0.05436322218371913,
              0.161603127604479,
              -0.05478219406155237,
              0.07635124029952589,
              0.18273267206016636,
              0.05943093284818087,
              0.006756719374001803,
              0.028758532699968895,
              0.18737273839932025,
              0.019116929057473777,
              -0.1351643725653713,
              0.10203662356640596,
              0.004799686245240881,
              0.1642030252706238,
              0.04822579353168262,
              0.05798443584081694,
              0.0023393875755778216,
              0.025511590375593824,
              -0.05314678730852681,
              0.07624216379169346,
              -0.03978497871718709,
              -0.08510920633390082,
              0.0551410309215004,
              0.04978883571298694,
              0.04848305449187913,
              0.029795206802750957,
              0.0037875528705615985,
              0.00028722914253620323,
              0.058072454878360324,
              0.08468530901789892,
              0.044498528612186984,
              0.0570880293269678,
              0.07461690113212345,
              -0.12197914321293411,
              0.14321391246511864,
              0.024721225867495495,
              -0.03122915678663505,
              0.0012791446352290606,
              -0.011145920433530528,
              0.16237216405830604,
              -0.046577851152794635,
              -0.12982263562760743,
              0.1344502825288802,
              0.07651410437961914,
              0.11686297063266347,
              0.014359360678487941,
              0.03326363437941809,
              0.10260749946097458,
              0.12299951629186653,
              0.12511126301274472,
              -0.019697036493600717,
              -0.081854851228333,
              0.01092739257307032,
              0.08745580739105747,
              0.008546723853693764,
              0.04581242868637458,
              0.02866105856905746,
              0.0011633231300961129,
              -0.014938685027593764,
              -0.016756078415097395,
              0.16193435944459247,
              0.03399603915195341,
              0.0102914245726756,
              0.0010976114221276161,
              -0.03864369849590155,
              0.050127745454919305,
              -0.002873835365873485,
              0.003550605029335921,
              0.005890797274417087,
              -0.012778142760295144,
              0.02167740595183133,
              0.01891565012471599,
              0.047348904246962385,
              0.040027295518680034,
              0.027571146699983468,
              -0.0019163315029967752
            ],
            "bias": -0.17749488366673352,
            "learningSpeed": 0.01
          }
        },
        {
          "neuronType": "HiddenNeuron",
          "neuronParams": {
            "inputsWeights": [
              0.0029986152331180718,
              0.025034127823882518,
              0.0353479807548515,
              0.007605330640214296,
              0.07368606398514556,
              0.0071726085145753,
              -0.0556852724454866,
              0.03898446729666952,
              0.02993619505130132,
              0.0007983805501292831,
              0.0023353559957446824,
              0.04240722221188441,
              0.06687794775964677,
              0.17177520234680105,
              0.10821743025396095,
              -0.03628202496358945,
              -0.045148978872409616,
              0.0031721076360497445,
              0.04048183782338022,
              0.008075436614032525,
              0.009969158304128912,
              0.07091136464008428,
              0.012346267001572047,
              0.0628716497822379,
              -0.07649409579824941,
              0.0018678539992905935,
              -0.005928832869082491,
              -0.21198949018575475,
              0.08004786799533824,
              0.002277148039397374,
              0.012355112831620545,
              -0.03586413531321605,
              -0.05558785076623633,
              0.14806889100769927,
              0.12704226534754098,
              0.13844348224345107,
              0.15593527516385164,
              -0.06710431629932882,
              0.08232188180500882,
              0.001443731338216853,
              0.012916548555244933,
              -0.03324822816073173,
              0.01342225615006418,
              0.12578282589847004,
              0.12625893480488923,
              0.12017087155342224,
              0.13076205236050578,
              0.03602767398681242,
              -0.0022004728599065017,
              0.0014568243811856204,
              0.005232524702777982,
              0.059052256225999834,
              0.04194015637532965,
              -0.09073457577848852,
              -0.1568153817428133,
              0.15079939144309268,
